digraph Tree {
node [shape=box] ;
0 [label="donald <= 0.5\nentropy = 0.964\nsamples = 2287\nvalue = [888, 1399]"] ;
1 [label="trumps <= 0.5\nentropy = 0.998\nsamples = 1553\nvalue = [736, 817]"] ;
0 -> 1 [labeldistance=2.5, labelangle=45, headlabel="True"] ;
2 [label="hillary <= 0.5\nentropy = 1.0\nsamples = 1453\nvalue = [735, 718]"] ;
1 -> 2 ;
3 [label="the <= 0.5\nentropy = 0.998\nsamples = 1363\nvalue = [647, 716]"] ;
2 -> 3 ;
4 [label="us <= 0.5\nentropy = 0.98\nsamples = 1121\nvalue = [468, 653]"] ;
3 -> 4 ;
5 [label="korea <= 0.5\nentropy = 0.993\nsamples = 1015\nvalue = [456, 559]"] ;
4 -> 5 ;
6 [label="black <= 0.5\nentropy = 0.996\nsamples = 988\nvalue = [456, 532]"] ;
5 -> 6 ;
7 [label="just <= 0.5\nentropy = 0.993\nsamples = 969\nvalue = [437, 532]"] ;
6 -> 7 ;
8 [label="breaking <= 0.5\nentropy = 0.988\nsamples = 939\nvalue = [410, 529]"] ;
7 -> 8 ;
9 [label="trump <= 1.5\nentropy = 0.985\nsamples = 926\nvalue = [397, 529]"] ;
8 -> 9 ;
10 [label="watch <= 0.5\nentropy = 0.982\nsamples = 914\nvalue = [385, 529]"] ;
9 -> 10 ;
11 [label="people <= 0.5\nentropy = 0.978\nsamples = 898\nvalue = [370, 528]"] ;
10 -> 11 ;
12 [label="turnbull <= 0.5\nentropy = 0.973\nsamples = 883\nvalue = [356, 527]"] ;
11 -> 12 ;
13 [label="comey <= 0.5\nentropy = 0.977\nsamples = 867\nvalue = [356, 511]"] ;
12 -> 13 ;
14 [label="gets <= 0.5\nentropy = 0.98\nsamples = 853\nvalue = [356, 497]"] ;
13 -> 14 ;
15 [label="reporter <= 0.5\nentropy = 0.977\nsamples = 845\nvalue = [348, 497]"] ;
14 -> 15 ;
16 [label="that <= 0.5\nentropy = 0.975\nsamples = 838\nvalue = [341, 497]"] ;
15 -> 16 ;
17 [label="vote <= 0.5\nentropy = 0.971\nsamples = 824\nvalue = [329, 495]"] ;
16 -> 17 ;
18 [label="about <= 0.5\nentropy = 0.966\nsamples = 810\nvalue = [317, 493]"] ;
17 -> 18 ;
19 [label="clinton <= 0.5\nentropy = 0.959\nsamples = 787\nvalue = [300, 487]"] ;
18 -> 19 ;
20 [label="they <= 0.5\nentropy = 0.946\nsamples = 728\nvalue = [265, 463]"] ;
19 -> 20 ;
21 [label="wall <= 0.5\nentropy = 0.942\nsamples = 722\nvalue = [259, 463]"] ;
20 -> 21 ;
22 [label="victory <= 0.5\nentropy = 0.947\nsamples = 708\nvalue = [259, 449]"] ;
21 -> 22 ;
23 [label="comment <= 0.5\nentropy = 0.939\nsamples = 689\nvalue = [245, 444]"] ;
22 -> 23 ;
24 [label="australia <= 0.5\nentropy = 0.933\nsamples = 680\nvalue = [237, 443]"] ;
23 -> 24 ;
25 [label="poll <= 0.5\nentropy = 0.937\nsamples = 670\nvalue = [237, 433]"] ;
24 -> 25 ;
26 [label="fans <= 0.5\nentropy = 0.934\nsamples = 666\nvalue = [233, 433]"] ;
25 -> 26 ;
27 [label="times <= 0.5\nentropy = 0.93\nsamples = 662\nvalue = [229, 433]"] ;
26 -> 27 ;
28 [label="man <= 0.5\nentropy = 0.927\nsamples = 658\nvalue = [225, 433]"] ;
27 -> 28 ;
29 [label="massive <= 0.5\nentropy = 0.923\nsamples = 654\nvalue = [221, 433]"] ;
28 -> 29 ;
30 [label="between <= 0.5\nentropy = 0.919\nsamples = 650\nvalue = [217, 433]"] ;
29 -> 30 ;
31 [label="walk <= 0.5\nentropy = 0.915\nsamples = 646\nvalue = [213, 433]"] ;
30 -> 31 ;
32 [label="media <= 0.5\nentropy = 0.91\nsamples = 642\nvalue = [209, 433]"] ;
31 -> 32 ;
33 [label="political <= 0.5\nentropy = 0.902\nsamples = 627\nvalue = [199, 428]"] ;
32 -> 33 ;
34 [label="megyn <= 0.5\nentropy = 0.898\nsamples = 624\nvalue = [196, 428]"] ;
33 -> 34 ;
35 [label="predicts <= 0.5\nentropy = 0.894\nsamples = 621\nvalue = [193, 428]"] ;
34 -> 35 ;
36 [label="loses <= 0.5\nentropy = 0.89\nsamples = 618\nvalue = [190, 428]"] ;
35 -> 36 ;
37 [label="illegal <= 0.5\nentropy = 0.886\nsamples = 615\nvalue = [187, 428]"] ;
36 -> 37 ;
38 [label="interview <= 0.5\nentropy = 0.882\nsamples = 612\nvalue = [184, 428]"] ;
37 -> 38 ;
39 [label="old <= 0.5\nentropy = 0.878\nsamples = 609\nvalue = [181, 428]"] ;
38 -> 39 ;
40 [label="daily <= 0.5\nentropy = 0.873\nsamples = 606\nvalue = [178, 428]"] ;
39 -> 40 ;
41 [label="romney <= 0.5\nentropy = 0.869\nsamples = 603\nvalue = [175, 428]"] ;
40 -> 41 ;
42 [label="paid <= 0.5\nentropy = 0.864\nsamples = 600\nvalue = [172, 428]"] ;
41 -> 42 ;
43 [label="begins <= 0.5\nentropy = 0.86\nsamples = 597\nvalue = [169, 428]"] ;
42 -> 43 ;
44 [label="him <= 0.5\nentropy = 0.855\nsamples = 594\nvalue = [166, 428]"] ;
43 -> 44 ;
45 [label="and <= 1.5\nentropy = 0.845\nsamples = 584\nvalue = [159, 425]"] ;
44 -> 45 ;
46 [label="america <= 0.5\nentropy = 0.839\nsamples = 581\nvalue = [156, 425]"] ;
45 -> 46 ;
47 [label="bikers <= 0.5\nentropy = 0.826\nsamples = 566\nvalue = [147, 419]"] ;
46 -> 47 ;
48 [label="jews <= 0.5\nentropy = 0.822\nsamples = 564\nvalue = [145, 419]"] ;
47 -> 48 ;
49 [label="la <= 0.5\nentropy = 0.818\nsamples = 562\nvalue = [143, 419]"] ;
48 -> 49 ;
50 [label="un <= 0.5\nentropy = 0.814\nsamples = 560\nvalue = [141, 419]"] ;
49 -> 50 ;
51 [label="special <= 0.5\nentropy = 0.821\nsamples = 550\nvalue = [141, 409]"] ;
50 -> 51 ;
52 [label="schools <= 0.5\nentropy = 0.817\nsamples = 548\nvalue = [139, 409]"] ;
51 -> 52 ;
53 [label="julian <= 0.5\nentropy = 0.813\nsamples = 546\nvalue = [137, 409]"] ;
52 -> 53 ;
54 [label="biden <= 0.5\nentropy = 0.808\nsamples = 544\nvalue = [135, 409]"] ;
53 -> 54 ;
55 [label="today <= 0.5\nentropy = 0.804\nsamples = 542\nvalue = [133, 409]"] ;
54 -> 55 ;
56 [label="woman <= 0.5\nentropy = 0.799\nsamples = 540\nvalue = [131, 409]"] ;
55 -> 56 ;
57 [label="host <= 0.5\nentropy = 0.795\nsamples = 538\nvalue = [129, 409]"] ;
56 -> 57 ;
58 [label="rigged <= 0.5\nentropy = 0.79\nsamples = 536\nvalue = [127, 409]"] ;
57 -> 58 ;
59 [label="blames <= 0.5\nentropy = 0.785\nsamples = 534\nvalue = [125, 409]"] ;
58 -> 59 ;
60 [label="history <= 0.5\nentropy = 0.78\nsamples = 532\nvalue = [123, 409]"] ;
59 -> 60 ;
61 [label="starts <= 0.5\nentropy = 0.775\nsamples = 530\nvalue = [121, 409]"] ;
60 -> 61 ;
62 [label="11 <= 0.5\nentropy = 0.77\nsamples = 528\nvalue = [119, 409]"] ;
61 -> 62 ;
63 [label="anticipation <= 0.5\nentropy = 0.765\nsamples = 526\nvalue = [117, 409]"] ;
62 -> 63 ;
64 [label="make <= 0.5\nentropy = 0.759\nsamples = 524\nvalue = [115, 409]"] ;
63 -> 64 ;
65 [label="short <= 0.5\nentropy = 0.754\nsamples = 522\nvalue = [113, 409]"] ;
64 -> 65 ;
66 [label="october <= 0.5\nentropy = 0.748\nsamples = 520\nvalue = [111, 409]"] ;
65 -> 66 ;
67 [label="professor <= 0.5\nentropy = 0.742\nsamples = 518\nvalue = [109, 409]"] ;
66 -> 67 ;
68 [label="being <= 0.5\nentropy = 0.736\nsamples = 516\nvalue = [107, 409]"] ;
67 -> 68 ;
69 [label="years <= 0.5\nentropy = 0.73\nsamples = 514\nvalue = [105, 409]"] ;
68 -> 69 ;
70 [label="what <= 0.5\nentropy = 0.724\nsamples = 512\nvalue = [103, 409]"] ;
69 -> 70 ;
71 [label="elected <= 0.5\nentropy = 0.709\nsamples = 501\nvalue = [97, 404]"] ;
70 -> 71 ;
72 [label="populism <= 0.5\nentropy = 0.702\nsamples = 499\nvalue = [95, 404]"] ;
71 -> 72 ;
73 [label="roberts <= 0.5\nentropy = 0.695\nsamples = 497\nvalue = [93, 404]"] ;
72 -> 73 ;
74 [label="elect <= 0.5\nentropy = 0.688\nsamples = 495\nvalue = [91, 404]"] ;
73 -> 74 ;
75 [label="gold <= 0.5\nentropy = 0.681\nsamples = 493\nvalue = [89, 404]"] ;
74 -> 75 ;
76 [label="party <= 0.5\nentropy = 0.671\nsamples = 489\nvalue = [86, 403]"] ;
75 -> 76 ;
77 [label="over <= 0.5\nentropy = 0.66\nsamples = 485\nvalue = [83, 402]"] ;
76 -> 77 ;
78 [label="anti <= 0.5\nentropy = 0.673\nsamples = 470\nvalue = [83, 387]"] ;
77 -> 78 ;
79 [label="voter <= 0.5\nentropy = 0.655\nsamples = 456\nvalue = [77, 379]"] ;
78 -> 79 ;
80 [label="transition <= 0.5\nentropy = 0.644\nsamples = 451\nvalue = [74, 377]"] ;
79 -> 80 ;
81 [label="do <= 0.5\nentropy = 0.632\nsamples = 446\nvalue = [71, 375]"] ;
80 -> 81 ;
82 [label="little <= 0.5\nentropy = 0.62\nsamples = 441\nvalue = [68, 373]"] ;
81 -> 82 ;
83 [label="farage <= 0.5\nentropy = 0.612\nsamples = 438\nvalue = [66, 372]"] ;
82 -> 83 ;
84 [label="already <= 0.5\nentropy = 0.603\nsamples = 435\nvalue = [64, 371]"] ;
83 -> 84 ;
85 [label="cnn <= 0.5\nentropy = 0.593\nsamples = 432\nvalue = [62, 370]"] ;
84 -> 85 ;
86 [label="liberals <= 0.5\nentropy = 0.584\nsamples = 429\nvalue = [60, 369]"] ;
85 -> 86 ;
87 [label="protest <= 0.5\nentropy = 0.574\nsamples = 426\nvalue = [58, 368]"] ;
86 -> 87 ;
88 [label="we <= 0.5\nentropy = 0.564\nsamples = 423\nvalue = [56, 367]"] ;
87 -> 88 ;
89 [label="volk <= 0.5\nentropy = 0.554\nsamples = 420\nvalue = [54, 366]"] ;
88 -> 89 ;
90 [label="artificial <= 0.5\nentropy = 0.548\nsamples = 419\nvalue = [53, 366]"] ;
89 -> 90 ;
91 [label="minute <= 0.5\nentropy = 0.542\nsamples = 418\nvalue = [52, 366]"] ;
90 -> 91 ;
92 [label="he <= 0.5\nentropy = 0.536\nsamples = 417\nvalue = [51, 366]"] ;
91 -> 92 ;
93 [label="ab <= 0.5\nentropy = 0.514\nsamples = 401\nvalue = [46, 355]"] ;
92 -> 93 ;
94 [label="presstv <= 0.5\nentropy = 0.507\nsamples = 400\nvalue = [45, 355]"] ;
93 -> 94 ;
95 [label="endorse <= 0.5\nentropy = 0.501\nsamples = 399\nvalue = [44, 355]"] ;
94 -> 95 ;
96 [label="for <= 0.5\nentropy = 0.494\nsamples = 398\nvalue = [43, 355]"] ;
95 -> 96 ;
97 [label="update <= 0.5\nentropy = 0.525\nsamples = 363\nvalue = [43, 320]"] ;
96 -> 97 ;
98 [label="rapist <= 0.5\nentropy = 0.518\nsamples = 362\nvalue = [42, 320]"] ;
97 -> 98 ;
99 [label="porque <= 0.5\nentropy = 0.511\nsamples = 361\nvalue = [41, 320]"] ;
98 -> 99 ;
100 [label="mismo <= 0.5\nentropy = 0.503\nsamples = 360\nvalue = [40, 320]"] ;
99 -> 100 ;
101 [label="democrat <= 0.5\nentropy = 0.496\nsamples = 359\nvalue = [39, 320]"] ;
100 -> 101 ;
102 [label="reveals <= 0.5\nentropy = 0.488\nsamples = 358\nvalue = [38, 320]"] ;
101 -> 102 ;
103 [label="oil <= 0.5\nentropy = 0.48\nsamples = 357\nvalue = [37, 320]"] ;
102 -> 103 ;
104 [label="finland <= 0.5\nentropy = 0.473\nsamples = 356\nvalue = [36, 320]"] ;
103 -> 104 ;
105 [label="messiah <= 0.5\nentropy = 0.465\nsamples = 355\nvalue = [35, 320]"] ;
104 -> 105 ;
106 [label="says <= 0.5\nentropy = 0.456\nsamples = 354\nvalue = [34, 320]"] ;
105 -> 106 ;
107 [label="as <= 0.5\nentropy = 0.482\nsamples = 326\nvalue = [34, 292]"] ;
106 -> 107 ;
108 [label="success <= 0.5\nentropy = 0.504\nsamples = 305\nvalue = [34, 271]"] ;
107 -> 108 ;
109 [label="al <= 0.5\nentropy = 0.496\nsamples = 304\nvalue = [33, 271]"] ;
108 -> 109 ;
110 [label="spics <= 0.5\nentropy = 0.487\nsamples = 303\nvalue = [32, 271]"] ;
109 -> 110 ;
111 [label="own <= 0.5\nentropy = 0.477\nsamples = 302\nvalue = [31, 271]"] ;
110 -> 111 ;
112 [label="on <= 0.5\nentropy = 0.468\nsamples = 301\nvalue = [30, 271]"] ;
111 -> 112 ;
113 [label="obama <= 0.5\nentropy = 0.495\nsamples = 277\nvalue = [30, 247]"] ;
112 -> 113 ;
114 [label="pawns <= 0.5\nentropy = 0.463\nsamples = 265\nvalue = [26, 239]"] ;
113 -> 114 ;
115 [label="katrina <= 0.5\nentropy = 0.452\nsamples = 264\nvalue = [25, 239]"] ;
114 -> 115 ;
116 [label="apparently <= 0.5\nentropy = 0.441\nsamples = 263\nvalue = [24, 239]"] ;
115 -> 116 ;
117 [label="runway <= 0.5\nentropy = 0.429\nsamples = 262\nvalue = [23, 239]"] ;
116 -> 117 ;
118 [label="veritas <= 0.5\nentropy = 0.417\nsamples = 261\nvalue = [22, 239]"] ;
117 -> 118 ;
119 [label="ins <= 0.5\nentropy = 0.405\nsamples = 260\nvalue = [21, 239]"] ;
118 -> 119 ;
120 [label="entropy = 0.392\nsamples = 259\nvalue = [20, 239]"] ;
119 -> 120 ;
121 [label="entropy = 0.0\nsamples = 1\nvalue = [1, 0]"] ;
119 -> 121 ;
122 [label="entropy = 0.0\nsamples = 1\nvalue = [1, 0]"] ;
118 -> 122 ;
123 [label="entropy = 0.0\nsamples = 1\nvalue = [1, 0]"] ;
117 -> 123 ;
124 [label="entropy = 0.0\nsamples = 1\nvalue = [1, 0]"] ;
116 -> 124 ;
125 [label="entropy = 0.0\nsamples = 1\nvalue = [1, 0]"] ;
115 -> 125 ;
126 [label="entropy = 0.0\nsamples = 1\nvalue = [1, 0]"] ;
114 -> 126 ;
127 [label="white <= 0.5\nentropy = 0.918\nsamples = 12\nvalue = [4, 8]"] ;
113 -> 127 ;
128 [label="would <= 0.5\nentropy = 0.544\nsamples = 8\nvalue = [1, 7]"] ;
127 -> 128 ;
129 [label="entropy = 0.0\nsamples = 7\nvalue = [0, 7]"] ;
128 -> 129 ;
130 [label="entropy = 0.0\nsamples = 1\nvalue = [1, 0]"] ;
128 -> 130 ;
131 [label="begin <= 0.5\nentropy = 0.811\nsamples = 4\nvalue = [3, 1]"] ;
127 -> 131 ;
132 [label="entropy = 0.0\nsamples = 3\nvalue = [3, 0]"] ;
131 -> 132 ;
133 [label="entropy = 0.0\nsamples = 1\nvalue = [0, 1]"] ;
131 -> 133 ;
134 [label="entropy = 0.0\nsamples = 24\nvalue = [0, 24]"] ;
112 -> 134 ;
135 [label="entropy = 0.0\nsamples = 1\nvalue = [1, 0]"] ;
111 -> 135 ;
136 [label="entropy = 0.0\nsamples = 1\nvalue = [1, 0]"] ;
110 -> 136 ;
137 [label="entropy = 0.0\nsamples = 1\nvalue = [1, 0]"] ;
109 -> 137 ;
138 [label="entropy = 0.0\nsamples = 1\nvalue = [1, 0]"] ;
108 -> 138 ;
139 [label="entropy = 0.0\nsamples = 21\nvalue = [0, 21]"] ;
107 -> 139 ;
140 [label="entropy = 0.0\nsamples = 28\nvalue = [0, 28]"] ;
106 -> 140 ;
141 [label="entropy = 0.0\nsamples = 1\nvalue = [1, 0]"] ;
105 -> 141 ;
142 [label="entropy = 0.0\nsamples = 1\nvalue = [1, 0]"] ;
104 -> 142 ;
143 [label="entropy = 0.0\nsamples = 1\nvalue = [1, 0]"] ;
103 -> 143 ;
144 [label="entropy = 0.0\nsamples = 1\nvalue = [1, 0]"] ;
102 -> 144 ;
145 [label="entropy = 0.0\nsamples = 1\nvalue = [1, 0]"] ;
101 -> 145 ;
146 [label="entropy = 0.0\nsamples = 1\nvalue = [1, 0]"] ;
100 -> 146 ;
147 [label="entropy = 0.0\nsamples = 1\nvalue = [1, 0]"] ;
99 -> 147 ;
148 [label="entropy = 0.0\nsamples = 1\nvalue = [1, 0]"] ;
98 -> 148 ;
149 [label="entropy = 0.0\nsamples = 1\nvalue = [1, 0]"] ;
97 -> 149 ;
150 [label="entropy = 0.0\nsamples = 35\nvalue = [0, 35]"] ;
96 -> 150 ;
151 [label="entropy = 0.0\nsamples = 1\nvalue = [1, 0]"] ;
95 -> 151 ;
152 [label="entropy = 0.0\nsamples = 1\nvalue = [1, 0]"] ;
94 -> 152 ;
153 [label="entropy = 0.0\nsamples = 1\nvalue = [1, 0]"] ;
93 -> 153 ;
154 [label="in <= 0.5\nentropy = 0.896\nsamples = 16\nvalue = [5, 11]"] ;
92 -> 154 ;
155 [label="be <= 0.5\nentropy = 0.961\nsamples = 13\nvalue = [5, 8]"] ;
154 -> 155 ;
156 [label="opposed <= 0.5\nentropy = 0.845\nsamples = 11\nvalue = [3, 8]"] ;
155 -> 156 ;
157 [label="brave <= 0.5\nentropy = 0.722\nsamples = 10\nvalue = [2, 8]"] ;
156 -> 157 ;
158 [label="out <= 0.5\nentropy = 0.503\nsamples = 9\nvalue = [1, 8]"] ;
157 -> 158 ;
159 [label="entropy = 0.0\nsamples = 8\nvalue = [0, 8]"] ;
158 -> 159 ;
160 [label="entropy = 0.0\nsamples = 1\nvalue = [1, 0]"] ;
158 -> 160 ;
161 [label="entropy = 0.0\nsamples = 1\nvalue = [1, 0]"] ;
157 -> 161 ;
162 [label="entropy = 0.0\nsamples = 1\nvalue = [1, 0]"] ;
156 -> 162 ;
163 [label="entropy = 0.0\nsamples = 2\nvalue = [2, 0]"] ;
155 -> 163 ;
164 [label="entropy = 0.0\nsamples = 3\nvalue = [0, 3]"] ;
154 -> 164 ;
165 [label="entropy = 0.0\nsamples = 1\nvalue = [1, 0]"] ;
91 -> 165 ;
166 [label="entropy = 0.0\nsamples = 1\nvalue = [1, 0]"] ;
90 -> 166 ;
167 [label="entropy = 0.0\nsamples = 1\nvalue = [1, 0]"] ;
89 -> 167 ;
168 [label="republican <= 0.5\nentropy = 0.918\nsamples = 3\nvalue = [2, 1]"] ;
88 -> 168 ;
169 [label="entropy = 0.0\nsamples = 2\nvalue = [2, 0]"] ;
168 -> 169 ;
170 [label="entropy = 0.0\nsamples = 1\nvalue = [0, 1]"] ;
168 -> 170 ;
171 [label="coffees <= 0.5\nentropy = 0.918\nsamples = 3\nvalue = [2, 1]"] ;
87 -> 171 ;
172 [label="entropy = 0.0\nsamples = 2\nvalue = [2, 0]"] ;
171 -> 172 ;
173 [label="entropy = 0.0\nsamples = 1\nvalue = [0, 1]"] ;
171 -> 173 ;
174 [label="adam <= 0.5\nentropy = 0.918\nsamples = 3\nvalue = [2, 1]"] ;
86 -> 174 ;
175 [label="entropy = 0.0\nsamples = 2\nvalue = [2, 0]"] ;
174 -> 175 ;
176 [label="entropy = 0.0\nsamples = 1\nvalue = [0, 1]"] ;
174 -> 176 ;
177 [label="by <= 0.5\nentropy = 0.918\nsamples = 3\nvalue = [2, 1]"] ;
85 -> 177 ;
178 [label="entropy = 0.0\nsamples = 2\nvalue = [2, 0]"] ;
177 -> 178 ;
179 [label="entropy = 0.0\nsamples = 1\nvalue = [0, 1]"] ;
177 -> 179 ;
180 [label="pollsters <= 0.5\nentropy = 0.918\nsamples = 3\nvalue = [2, 1]"] ;
84 -> 180 ;
181 [label="entropy = 0.0\nsamples = 2\nvalue = [2, 0]"] ;
180 -> 181 ;
182 [label="entropy = 0.0\nsamples = 1\nvalue = [0, 1]"] ;
180 -> 182 ;
183 [label="ambassador <= 0.5\nentropy = 0.918\nsamples = 3\nvalue = [2, 1]"] ;
83 -> 183 ;
184 [label="entropy = 0.0\nsamples = 2\nvalue = [2, 0]"] ;
183 -> 184 ;
185 [label="entropy = 0.0\nsamples = 1\nvalue = [0, 1]"] ;
183 -> 185 ;
186 [label="wouldve <= 0.5\nentropy = 0.918\nsamples = 3\nvalue = [2, 1]"] ;
82 -> 186 ;
187 [label="entropy = 0.0\nsamples = 2\nvalue = [2, 0]"] ;
186 -> 187 ;
188 [label="entropy = 0.0\nsamples = 1\nvalue = [0, 1]"] ;
186 -> 188 ;
189 [label="americans <= 0.5\nentropy = 0.971\nsamples = 5\nvalue = [3, 2]"] ;
81 -> 189 ;
190 [label="no <= 0.5\nentropy = 0.811\nsamples = 4\nvalue = [3, 1]"] ;
189 -> 190 ;
191 [label="entropy = 0.0\nsamples = 3\nvalue = [3, 0]"] ;
190 -> 191 ;
192 [label="entropy = 0.0\nsamples = 1\nvalue = [0, 1]"] ;
190 -> 192 ;
193 [label="entropy = 0.0\nsamples = 1\nvalue = [0, 1]"] ;
189 -> 193 ;
194 [label="team <= 0.5\nentropy = 0.971\nsamples = 5\nvalue = [3, 2]"] ;
80 -> 194 ;
195 [label="entropy = 0.0\nsamples = 2\nvalue = [2, 0]"] ;
194 -> 195 ;
196 [label="mug <= 0.5\nentropy = 0.918\nsamples = 3\nvalue = [1, 2]"] ;
194 -> 196 ;
197 [label="entropy = 0.0\nsamples = 2\nvalue = [0, 2]"] ;
196 -> 197 ;
198 [label="entropy = 0.0\nsamples = 1\nvalue = [1, 0]"] ;
196 -> 198 ;
199 [label="reactions <= 0.5\nentropy = 0.971\nsamples = 5\nvalue = [3, 2]"] ;
79 -> 199 ;
200 [label="democrats <= 0.5\nentropy = 0.811\nsamples = 4\nvalue = [3, 1]"] ;
199 -> 200 ;
201 [label="entropy = 0.0\nsamples = 3\nvalue = [3, 0]"] ;
200 -> 201 ;
202 [label="entropy = 0.0\nsamples = 1\nvalue = [0, 1]"] ;
200 -> 202 ;
203 [label="entropy = 0.0\nsamples = 1\nvalue = [0, 1]"] ;
199 -> 203 ;
204 [label="in <= 0.5\nentropy = 0.985\nsamples = 14\nvalue = [6, 8]"] ;
78 -> 204 ;
205 [label="condemnation <= 0.5\nentropy = 0.971\nsamples = 10\nvalue = [6, 4]"] ;
204 -> 205 ;
206 [label="wants <= 0.5\nentropy = 0.918\nsamples = 9\nvalue = [6, 3]"] ;
205 -> 206 ;
207 [label="demonstrators <= 0.5\nentropy = 0.811\nsamples = 8\nvalue = [6, 2]"] ;
206 -> 207 ;
208 [label="protests <= 0.5\nentropy = 0.592\nsamples = 7\nvalue = [6, 1]"] ;
207 -> 208 ;
209 [label="entropy = 0.0\nsamples = 6\nvalue = [6, 0]"] ;
208 -> 209 ;
210 [label="entropy = 0.0\nsamples = 1\nvalue = [0, 1]"] ;
208 -> 210 ;
211 [label="entropy = 0.0\nsamples = 1\nvalue = [0, 1]"] ;
207 -> 211 ;
212 [label="entropy = 0.0\nsamples = 1\nvalue = [0, 1]"] ;
206 -> 212 ;
213 [label="entropy = 0.0\nsamples = 1\nvalue = [0, 1]"] ;
205 -> 213 ;
214 [label="entropy = 0.0\nsamples = 4\nvalue = [0, 4]"] ;
204 -> 214 ;
215 [label="entropy = 0.0\nsamples = 15\nvalue = [0, 15]"] ;
77 -> 215 ;
216 [label="wing <= 0.5\nentropy = 0.811\nsamples = 4\nvalue = [3, 1]"] ;
76 -> 216 ;
217 [label="entropy = 0.0\nsamples = 3\nvalue = [3, 0]"] ;
216 -> 217 ;
218 [label="entropy = 0.0\nsamples = 1\nvalue = [0, 1]"] ;
216 -> 218 ;
219 [label="up <= 0.5\nentropy = 0.811\nsamples = 4\nvalue = [3, 1]"] ;
75 -> 219 ;
220 [label="entropy = 0.0\nsamples = 3\nvalue = [3, 0]"] ;
219 -> 220 ;
221 [label="entropy = 0.0\nsamples = 1\nvalue = [0, 1]"] ;
219 -> 221 ;
222 [label="entropy = 0.0\nsamples = 2\nvalue = [2, 0]"] ;
74 -> 222 ;
223 [label="entropy = 0.0\nsamples = 2\nvalue = [2, 0]"] ;
73 -> 223 ;
224 [label="entropy = 0.0\nsamples = 2\nvalue = [2, 0]"] ;
72 -> 224 ;
225 [label="entropy = 0.0\nsamples = 2\nvalue = [2, 0]"] ;
71 -> 225 ;
226 [label="did <= 0.5\nentropy = 0.994\nsamples = 11\nvalue = [6, 5]"] ;
70 -> 226 ;
227 [label="to <= 0.5\nentropy = 0.991\nsamples = 9\nvalue = [4, 5]"] ;
226 -> 227 ;
228 [label="trump <= 0.5\nentropy = 0.918\nsamples = 6\nvalue = [4, 2]"] ;
227 -> 228 ;
229 [label="entropy = 0.0\nsamples = 1\nvalue = [0, 1]"] ;
228 -> 229 ;
230 [label="inherits <= 0.5\nentropy = 0.722\nsamples = 5\nvalue = [4, 1]"] ;
228 -> 230 ;
231 [label="entropy = 0.0\nsamples = 4\nvalue = [4, 0]"] ;
230 -> 231 ;
232 [label="entropy = 0.0\nsamples = 1\nvalue = [0, 1]"] ;
230 -> 232 ;
233 [label="entropy = 0.0\nsamples = 3\nvalue = [0, 3]"] ;
227 -> 233 ;
234 [label="entropy = 0.0\nsamples = 2\nvalue = [2, 0]"] ;
226 -> 234 ;
235 [label="entropy = 0.0\nsamples = 2\nvalue = [2, 0]"] ;
69 -> 235 ;
236 [label="entropy = 0.0\nsamples = 2\nvalue = [2, 0]"] ;
68 -> 236 ;
237 [label="entropy = 0.0\nsamples = 2\nvalue = [2, 0]"] ;
67 -> 237 ;
238 [label="entropy = 0.0\nsamples = 2\nvalue = [2, 0]"] ;
66 -> 238 ;
239 [label="entropy = 0.0\nsamples = 2\nvalue = [2, 0]"] ;
65 -> 239 ;
240 [label="entropy = 0.0\nsamples = 2\nvalue = [2, 0]"] ;
64 -> 240 ;
241 [label="entropy = 0.0\nsamples = 2\nvalue = [2, 0]"] ;
63 -> 241 ;
242 [label="entropy = 0.0\nsamples = 2\nvalue = [2, 0]"] ;
62 -> 242 ;
243 [label="entropy = 0.0\nsamples = 2\nvalue = [2, 0]"] ;
61 -> 243 ;
244 [label="entropy = 0.0\nsamples = 2\nvalue = [2, 0]"] ;
60 -> 244 ;
245 [label="entropy = 0.0\nsamples = 2\nvalue = [2, 0]"] ;
59 -> 245 ;
246 [label="entropy = 0.0\nsamples = 2\nvalue = [2, 0]"] ;
58 -> 246 ;
247 [label="entropy = 0.0\nsamples = 2\nvalue = [2, 0]"] ;
57 -> 247 ;
248 [label="entropy = 0.0\nsamples = 2\nvalue = [2, 0]"] ;
56 -> 248 ;
249 [label="entropy = 0.0\nsamples = 2\nvalue = [2, 0]"] ;
55 -> 249 ;
250 [label="entropy = 0.0\nsamples = 2\nvalue = [2, 0]"] ;
54 -> 250 ;
251 [label="entropy = 0.0\nsamples = 2\nvalue = [2, 0]"] ;
53 -> 251 ;
252 [label="entropy = 0.0\nsamples = 2\nvalue = [2, 0]"] ;
52 -> 252 ;
253 [label="entropy = 0.0\nsamples = 2\nvalue = [2, 0]"] ;
51 -> 253 ;
254 [label="entropy = 0.0\nsamples = 10\nvalue = [0, 10]"] ;
50 -> 254 ;
255 [label="entropy = 0.0\nsamples = 2\nvalue = [2, 0]"] ;
49 -> 255 ;
256 [label="entropy = 0.0\nsamples = 2\nvalue = [2, 0]"] ;
48 -> 256 ;
257 [label="entropy = 0.0\nsamples = 2\nvalue = [2, 0]"] ;
47 -> 257 ;
258 [label="says <= 0.5\nentropy = 0.971\nsamples = 15\nvalue = [9, 6]"] ;
46 -> 258 ;
259 [label="for <= 0.5\nentropy = 0.89\nsamples = 13\nvalue = [9, 4]"] ;
258 -> 259 ;
260 [label="will <= 0.5\nentropy = 0.971\nsamples = 10\nvalue = [6, 4]"] ;
259 -> 260 ;
261 [label="be <= 0.5\nentropy = 1.0\nsamples = 8\nvalue = [4, 4]"] ;
260 -> 261 ;
262 [label="certain <= 0.5\nentropy = 0.985\nsamples = 7\nvalue = [4, 3]"] ;
261 -> 262 ;
263 [label="from <= 0.5\nentropy = 0.918\nsamples = 6\nvalue = [4, 2]"] ;
262 -> 263 ;
264 [label="miss <= 0.5\nentropy = 0.722\nsamples = 5\nvalue = [4, 1]"] ;
263 -> 264 ;
265 [label="entropy = 0.0\nsamples = 4\nvalue = [4, 0]"] ;
264 -> 265 ;
266 [label="entropy = 0.0\nsamples = 1\nvalue = [0, 1]"] ;
264 -> 266 ;
267 [label="entropy = 0.0\nsamples = 1\nvalue = [0, 1]"] ;
263 -> 267 ;
268 [label="entropy = 0.0\nsamples = 1\nvalue = [0, 1]"] ;
262 -> 268 ;
269 [label="entropy = 0.0\nsamples = 1\nvalue = [0, 1]"] ;
261 -> 269 ;
270 [label="entropy = 0.0\nsamples = 2\nvalue = [2, 0]"] ;
260 -> 270 ;
271 [label="entropy = 0.0\nsamples = 3\nvalue = [3, 0]"] ;
259 -> 271 ;
272 [label="entropy = 0.0\nsamples = 2\nvalue = [0, 2]"] ;
258 -> 272 ;
273 [label="entropy = 0.0\nsamples = 3\nvalue = [3, 0]"] ;
45 -> 273 ;
274 [label="cnn <= 0.5\nentropy = 0.881\nsamples = 10\nvalue = [7, 3]"] ;
44 -> 274 ;
275 [label="press <= 0.5\nentropy = 0.764\nsamples = 9\nvalue = [7, 2]"] ;
274 -> 275 ;
276 [label="steve <= 0.5\nentropy = 0.544\nsamples = 8\nvalue = [7, 1]"] ;
275 -> 276 ;
277 [label="entropy = 0.0\nsamples = 7\nvalue = [7, 0]"] ;
276 -> 277 ;
278 [label="entropy = 0.0\nsamples = 1\nvalue = [0, 1]"] ;
276 -> 278 ;
279 [label="entropy = 0.0\nsamples = 1\nvalue = [0, 1]"] ;
275 -> 279 ;
280 [label="entropy = 0.0\nsamples = 1\nvalue = [0, 1]"] ;
274 -> 280 ;
281 [label="entropy = 0.0\nsamples = 3\nvalue = [3, 0]"] ;
43 -> 281 ;
282 [label="entropy = 0.0\nsamples = 3\nvalue = [3, 0]"] ;
42 -> 282 ;
283 [label="entropy = 0.0\nsamples = 3\nvalue = [3, 0]"] ;
41 -> 283 ;
284 [label="entropy = 0.0\nsamples = 3\nvalue = [3, 0]"] ;
40 -> 284 ;
285 [label="entropy = 0.0\nsamples = 3\nvalue = [3, 0]"] ;
39 -> 285 ;
286 [label="entropy = 0.0\nsamples = 3\nvalue = [3, 0]"] ;
38 -> 286 ;
287 [label="entropy = 0.0\nsamples = 3\nvalue = [3, 0]"] ;
37 -> 287 ;
288 [label="entropy = 0.0\nsamples = 3\nvalue = [3, 0]"] ;
36 -> 288 ;
289 [label="entropy = 0.0\nsamples = 3\nvalue = [3, 0]"] ;
35 -> 289 ;
290 [label="entropy = 0.0\nsamples = 3\nvalue = [3, 0]"] ;
34 -> 290 ;
291 [label="entropy = 0.0\nsamples = 3\nvalue = [3, 0]"] ;
33 -> 291 ;
292 [label="is <= 0.5\nentropy = 0.918\nsamples = 15\nvalue = [10, 5]"] ;
32 -> 292 ;
293 [label="touts <= 0.5\nentropy = 0.98\nsamples = 12\nvalue = [7, 5]"] ;
292 -> 293 ;
294 [label="news <= 0.5\nentropy = 0.946\nsamples = 11\nvalue = [7, 4]"] ;
293 -> 294 ;
295 [label="pm <= 0.5\nentropy = 0.881\nsamples = 10\nvalue = [7, 3]"] ;
294 -> 295 ;
296 [label="steps <= 0.5\nentropy = 0.764\nsamples = 9\nvalue = [7, 2]"] ;
295 -> 296 ;
297 [label="vows <= 0.5\nentropy = 0.544\nsamples = 8\nvalue = [7, 1]"] ;
296 -> 297 ;
298 [label="entropy = 0.0\nsamples = 7\nvalue = [7, 0]"] ;
297 -> 298 ;
299 [label="entropy = 0.0\nsamples = 1\nvalue = [0, 1]"] ;
297 -> 299 ;
300 [label="entropy = 0.0\nsamples = 1\nvalue = [0, 1]"] ;
296 -> 300 ;
301 [label="entropy = 0.0\nsamples = 1\nvalue = [0, 1]"] ;
295 -> 301 ;
302 [label="entropy = 0.0\nsamples = 1\nvalue = [0, 1]"] ;
294 -> 302 ;
303 [label="entropy = 0.0\nsamples = 1\nvalue = [0, 1]"] ;
293 -> 303 ;
304 [label="entropy = 0.0\nsamples = 3\nvalue = [3, 0]"] ;
292 -> 304 ;
305 [label="entropy = 0.0\nsamples = 4\nvalue = [4, 0]"] ;
31 -> 305 ;
306 [label="entropy = 0.0\nsamples = 4\nvalue = [4, 0]"] ;
30 -> 306 ;
307 [label="entropy = 0.0\nsamples = 4\nvalue = [4, 0]"] ;
29 -> 307 ;
308 [label="entropy = 0.0\nsamples = 4\nvalue = [4, 0]"] ;
28 -> 308 ;
309 [label="entropy = 0.0\nsamples = 4\nvalue = [4, 0]"] ;
27 -> 309 ;
310 [label="entropy = 0.0\nsamples = 4\nvalue = [4, 0]"] ;
26 -> 310 ;
311 [label="entropy = 0.0\nsamples = 4\nvalue = [4, 0]"] ;
25 -> 311 ;
312 [label="entropy = 0.0\nsamples = 10\nvalue = [0, 10]"] ;
24 -> 312 ;
313 [label="by <= 0.5\nentropy = 0.503\nsamples = 9\nvalue = [8, 1]"] ;
23 -> 313 ;
314 [label="entropy = 0.0\nsamples = 1\nvalue = [0, 1]"] ;
313 -> 314 ;
315 [label="entropy = 0.0\nsamples = 8\nvalue = [8, 0]"] ;
313 -> 315 ;
316 [label="after <= 0.5\nentropy = 0.831\nsamples = 19\nvalue = [14, 5]"] ;
22 -> 316 ;
317 [label="lessons <= 0.5\nentropy = 0.672\nsamples = 17\nvalue = [14, 3]"] ;
316 -> 317 ;
318 [label="concerns <= 0.5\nentropy = 0.544\nsamples = 16\nvalue = [14, 2]"] ;
317 -> 318 ;
319 [label="warning <= 0.5\nentropy = 0.353\nsamples = 15\nvalue = [14, 1]"] ;
318 -> 319 ;
320 [label="entropy = 0.0\nsamples = 14\nvalue = [14, 0]"] ;
319 -> 320 ;
321 [label="entropy = 0.0\nsamples = 1\nvalue = [0, 1]"] ;
319 -> 321 ;
322 [label="entropy = 0.0\nsamples = 1\nvalue = [0, 1]"] ;
318 -> 322 ;
323 [label="entropy = 0.0\nsamples = 1\nvalue = [0, 1]"] ;
317 -> 323 ;
324 [label="entropy = 0.0\nsamples = 2\nvalue = [0, 2]"] ;
316 -> 324 ;
325 [label="entropy = 0.0\nsamples = 14\nvalue = [0, 14]"] ;
21 -> 325 ;
326 [label="entropy = 0.0\nsamples = 6\nvalue = [6, 0]"] ;
20 -> 326 ;
327 [label="debate <= 0.5\nentropy = 0.975\nsamples = 59\nvalue = [35, 24]"] ;
19 -> 327 ;
328 [label="over <= 0.5\nentropy = 0.924\nsamples = 53\nvalue = [35, 18]"] ;
327 -> 328 ;
329 [label="americans <= 0.5\nentropy = 0.851\nsamples = 47\nvalue = [34, 13]"] ;
328 -> 329 ;
330 [label="in <= 0.5\nentropy = 0.773\nsamples = 44\nvalue = [34, 10]"] ;
329 -> 330 ;
331 [label="live <= 0.5\nentropy = 0.629\nsamples = 38\nvalue = [32, 6]"] ;
330 -> 331 ;
332 [label="russian <= 0.5\nentropy = 0.571\nsamples = 37\nvalue = [32, 5]"] ;
331 -> 332 ;
333 [label="pay <= 0.5\nentropy = 0.503\nsamples = 36\nvalue = [32, 4]"] ;
332 -> 333 ;
334 [label="announcement <= 0.5\nentropy = 0.422\nsamples = 35\nvalue = [32, 3]"] ;
333 -> 334 ;
335 [label="part <= 0.5\nentropy = 0.323\nsamples = 34\nvalue = [32, 2]"] ;
334 -> 335 ;
336 [label="says <= 0.5\nentropy = 0.196\nsamples = 33\nvalue = [32, 1]"] ;
335 -> 336 ;
337 [label="entropy = 0.0\nsamples = 31\nvalue = [31, 0]"] ;
336 -> 337 ;
338 [label="blowing <= 0.5\nentropy = 1.0\nsamples = 2\nvalue = [1, 1]"] ;
336 -> 338 ;
339 [label="entropy = 0.0\nsamples = 1\nvalue = [0, 1]"] ;
338 -> 339 ;
340 [label="entropy = 0.0\nsamples = 1\nvalue = [1, 0]"] ;
338 -> 340 ;
341 [label="entropy = 0.0\nsamples = 1\nvalue = [0, 1]"] ;
335 -> 341 ;
342 [label="entropy = 0.0\nsamples = 1\nvalue = [0, 1]"] ;
334 -> 342 ;
343 [label="entropy = 0.0\nsamples = 1\nvalue = [0, 1]"] ;
333 -> 343 ;
344 [label="entropy = 0.0\nsamples = 1\nvalue = [0, 1]"] ;
332 -> 344 ;
345 [label="entropy = 0.0\nsamples = 1\nvalue = [0, 1]"] ;
331 -> 345 ;
346 [label="claims <= 0.5\nentropy = 0.918\nsamples = 6\nvalue = [2, 4]"] ;
330 -> 346 ;
347 [label="property <= 0.5\nentropy = 0.722\nsamples = 5\nvalue = [1, 4]"] ;
346 -> 347 ;
348 [label="entropy = 0.0\nsamples = 4\nvalue = [0, 4]"] ;
347 -> 348 ;
349 [label="entropy = 0.0\nsamples = 1\nvalue = [1, 0]"] ;
347 -> 349 ;
350 [label="entropy = 0.0\nsamples = 1\nvalue = [1, 0]"] ;
346 -> 350 ;
351 [label="entropy = 0.0\nsamples = 3\nvalue = [0, 3]"] ;
329 -> 351 ;
352 [label="it <= 0.5\nentropy = 0.65\nsamples = 6\nvalue = [1, 5]"] ;
328 -> 352 ;
353 [label="entropy = 0.0\nsamples = 5\nvalue = [0, 5]"] ;
352 -> 353 ;
354 [label="entropy = 0.0\nsamples = 1\nvalue = [1, 0]"] ;
352 -> 354 ;
355 [label="entropy = 0.0\nsamples = 6\nvalue = [0, 6]"] ;
327 -> 355 ;
356 [label="wall <= 0.5\nentropy = 0.828\nsamples = 23\nvalue = [17, 6]"] ;
18 -> 356 ;
357 [label="saving <= 0.5\nentropy = 0.702\nsamples = 21\nvalue = [17, 4]"] ;
356 -> 357 ;
358 [label="freedom <= 0.5\nentropy = 0.61\nsamples = 20\nvalue = [17, 3]"] ;
357 -> 358 ;
359 [label="depp <= 0.5\nentropy = 0.485\nsamples = 19\nvalue = [17, 2]"] ;
358 -> 359 ;
360 [label="email <= 0.5\nentropy = 0.31\nsamples = 18\nvalue = [17, 1]"] ;
359 -> 360 ;
361 [label="entropy = 0.0\nsamples = 17\nvalue = [17, 0]"] ;
360 -> 361 ;
362 [label="entropy = 0.0\nsamples = 1\nvalue = [0, 1]"] ;
360 -> 362 ;
363 [label="entropy = 0.0\nsamples = 1\nvalue = [0, 1]"] ;
359 -> 363 ;
364 [label="entropy = 0.0\nsamples = 1\nvalue = [0, 1]"] ;
358 -> 364 ;
365 [label="entropy = 0.0\nsamples = 1\nvalue = [0, 1]"] ;
357 -> 365 ;
366 [label="entropy = 0.0\nsamples = 2\nvalue = [0, 2]"] ;
356 -> 366 ;
367 [label="even <= 0.5\nentropy = 0.592\nsamples = 14\nvalue = [12, 2]"] ;
17 -> 367 ;
368 [label="and <= 0.5\nentropy = 0.391\nsamples = 13\nvalue = [12, 1]"] ;
367 -> 368 ;
369 [label="entropy = 0.0\nsamples = 12\nvalue = [12, 0]"] ;
368 -> 369 ;
370 [label="entropy = 0.0\nsamples = 1\nvalue = [0, 1]"] ;
368 -> 370 ;
371 [label="entropy = 0.0\nsamples = 1\nvalue = [0, 1]"] ;
367 -> 371 ;
372 [label="call <= 0.5\nentropy = 0.592\nsamples = 14\nvalue = [12, 2]"] ;
16 -> 372 ;
373 [label="flynn <= 0.5\nentropy = 0.391\nsamples = 13\nvalue = [12, 1]"] ;
372 -> 373 ;
374 [label="entropy = 0.0\nsamples = 12\nvalue = [12, 0]"] ;
373 -> 374 ;
375 [label="entropy = 0.0\nsamples = 1\nvalue = [0, 1]"] ;
373 -> 375 ;
376 [label="entropy = 0.0\nsamples = 1\nvalue = [0, 1]"] ;
372 -> 376 ;
377 [label="entropy = 0.0\nsamples = 7\nvalue = [7, 0]"] ;
15 -> 377 ;
378 [label="entropy = 0.0\nsamples = 8\nvalue = [8, 0]"] ;
14 -> 378 ;
379 [label="entropy = 0.0\nsamples = 14\nvalue = [0, 14]"] ;
13 -> 379 ;
380 [label="entropy = 0.0\nsamples = 16\nvalue = [0, 16]"] ;
12 -> 380 ;
381 [label="alertthedaycarestaff <= 0.5\nentropy = 0.353\nsamples = 15\nvalue = [14, 1]"] ;
11 -> 381 ;
382 [label="entropy = 0.0\nsamples = 14\nvalue = [14, 0]"] ;
381 -> 382 ;
383 [label="entropy = 0.0\nsamples = 1\nvalue = [0, 1]"] ;
381 -> 383 ;
384 [label="what <= 0.5\nentropy = 0.337\nsamples = 16\nvalue = [15, 1]"] ;
10 -> 384 ;
385 [label="entropy = 0.0\nsamples = 15\nvalue = [15, 0]"] ;
384 -> 385 ;
386 [label="entropy = 0.0\nsamples = 1\nvalue = [0, 1]"] ;
384 -> 386 ;
387 [label="entropy = 0.0\nsamples = 12\nvalue = [12, 0]"] ;
9 -> 387 ;
388 [label="entropy = 0.0\nsamples = 13\nvalue = [13, 0]"] ;
8 -> 388 ;
389 [label="452000 <= 0.5\nentropy = 0.469\nsamples = 30\nvalue = [27, 3]"] ;
7 -> 389 ;
390 [label="minister <= 0.5\nentropy = 0.362\nsamples = 29\nvalue = [27, 2]"] ;
389 -> 390 ;
391 [label="time <= 0.5\nentropy = 0.222\nsamples = 28\nvalue = [27, 1]"] ;
390 -> 391 ;
392 [label="entropy = 0.0\nsamples = 27\nvalue = [27, 0]"] ;
391 -> 392 ;
393 [label="entropy = 0.0\nsamples = 1\nvalue = [0, 1]"] ;
391 -> 393 ;
394 [label="entropy = 0.0\nsamples = 1\nvalue = [0, 1]"] ;
390 -> 394 ;
395 [label="entropy = 0.0\nsamples = 1\nvalue = [0, 1]"] ;
389 -> 395 ;
396 [label="entropy = 0.0\nsamples = 19\nvalue = [19, 0]"] ;
6 -> 396 ;
397 [label="entropy = 0.0\nsamples = 27\nvalue = [0, 27]"] ;
5 -> 397 ;
398 [label="no <= 0.5\nentropy = 0.51\nsamples = 106\nvalue = [12, 94]"] ;
4 -> 398 ;
399 [label="revolution <= 0.5\nentropy = 0.457\nsamples = 104\nvalue = [10, 94]"] ;
398 -> 399 ;
400 [label="voters <= 0.5\nentropy = 0.397\nsamples = 102\nvalue = [8, 94]"] ;
399 -> 400 ;
401 [label="touch <= 0.5\nentropy = 0.327\nsamples = 100\nvalue = [6, 94]"] ;
400 -> 401 ;
402 [label="retired <= 0.5\nentropy = 0.289\nsamples = 99\nvalue = [5, 94]"] ;
401 -> 402 ;
403 [label="yearns <= 0.5\nentropy = 0.246\nsamples = 98\nvalue = [4, 94]"] ;
402 -> 403 ;
404 [label="congratulates <= 0.5\nentropy = 0.199\nsamples = 97\nvalue = [3, 94]"] ;
403 -> 404 ;
405 [label="that <= 0.5\nentropy = 0.146\nsamples = 96\nvalue = [2, 94]"] ;
404 -> 405 ;
406 [label="100mln <= 0.5\nentropy = 0.084\nsamples = 95\nvalue = [1, 94]"] ;
405 -> 406 ;
407 [label="entropy = 0.0\nsamples = 94\nvalue = [0, 94]"] ;
406 -> 407 ;
408 [label="entropy = 0.0\nsamples = 1\nvalue = [1, 0]"] ;
406 -> 408 ;
409 [label="entropy = 0.0\nsamples = 1\nvalue = [1, 0]"] ;
405 -> 409 ;
410 [label="entropy = 0.0\nsamples = 1\nvalue = [1, 0]"] ;
404 -> 410 ;
411 [label="entropy = 0.0\nsamples = 1\nvalue = [1, 0]"] ;
403 -> 411 ;
412 [label="entropy = 0.0\nsamples = 1\nvalue = [1, 0]"] ;
402 -> 412 ;
413 [label="entropy = 0.0\nsamples = 1\nvalue = [1, 0]"] ;
401 -> 413 ;
414 [label="entropy = 0.0\nsamples = 2\nvalue = [2, 0]"] ;
400 -> 414 ;
415 [label="entropy = 0.0\nsamples = 2\nvalue = [2, 0]"] ;
399 -> 415 ;
416 [label="entropy = 0.0\nsamples = 2\nvalue = [2, 0]"] ;
398 -> 416 ;
417 [label="turnbull <= 0.5\nentropy = 0.827\nsamples = 242\nvalue = [179, 63]"] ;
3 -> 417 ;
418 [label="are <= 0.5\nentropy = 0.813\nsamples = 239\nvalue = [179, 60]"] ;
417 -> 418 ;
419 [label="if <= 0.5\nentropy = 0.835\nsamples = 226\nvalue = [166, 60]"] ;
418 -> 419 ;
420 [label="climate <= 0.5\nentropy = 0.851\nsamples = 217\nvalue = [157, 60]"] ;
419 -> 420 ;
421 [label="make <= 0.5\nentropy = 0.841\nsamples = 215\nvalue = [157, 58]"] ;
420 -> 421 ;
422 [label="wearing <= 0.5\nentropy = 0.831\nsamples = 213\nvalue = [157, 56]"] ;
421 -> 422 ;
423 [label="person <= 0.5\nentropy = 0.821\nsamples = 211\nvalue = [157, 54]"] ;
422 -> 423 ;
424 [label="nuclear <= 0.5\nentropy = 0.809\nsamples = 209\nvalue = [157, 52]"] ;
423 -> 424 ;
425 [label="of <= 0.5\nentropy = 0.798\nsamples = 207\nvalue = [157, 50]"] ;
424 -> 425 ;
426 [label="hit <= 0.5\nentropy = 0.844\nsamples = 173\nvalue = [126, 47]"] ;
425 -> 426 ;
427 [label="west <= 0.5\nentropy = 0.831\nsamples = 171\nvalue = [126, 45]"] ;
426 -> 427 ;
428 [label="ban <= 0.5\nentropy = 0.818\nsamples = 169\nvalue = [126, 43]"] ;
427 -> 428 ;
429 [label="new <= 0.5\nentropy = 0.804\nsamples = 167\nvalue = [126, 41]"] ;
428 -> 429 ;
430 [label="have <= 0.5\nentropy = 0.831\nsamples = 152\nvalue = [112, 40]"] ;
429 -> 430 ;
431 [label="did <= 0.5\nentropy = 0.817\nsamples = 150\nvalue = [112, 38]"] ;
430 -> 431 ;
432 [label="anti <= 0.5\nentropy = 0.833\nsamples = 144\nvalue = [106, 38]"] ;
431 -> 432 ;
433 [label="us <= 0.5\nentropy = 0.856\nsamples = 132\nvalue = [95, 37]"] ;
432 -> 433 ;
434 [label="world <= 0.5\nentropy = 0.833\nsamples = 125\nvalue = [92, 33]"] ;
433 -> 434 ;
435 [label="media <= 0.5\nentropy = 0.852\nsamples = 119\nvalue = [86, 33]"] ;
434 -> 435 ;
436 [label="they <= 0.5\nentropy = 0.871\nsamples = 113\nvalue = [80, 33]"] ;
435 -> 436 ;
437 [label="trump <= 1.5\nentropy = 0.885\nsamples = 109\nvalue = [76, 33]"] ;
436 -> 437 ;
438 [label="look <= 0.5\nentropy = 0.898\nsamples = 105\nvalue = [72, 33]"] ;
437 -> 438 ;
439 [label="the <= 1.5\nentropy = 0.882\nsamples = 103\nvalue = [72, 31]"] ;
438 -> 439 ;
440 [label="could <= 0.5\nentropy = 0.918\nsamples = 90\nvalue = [60, 30]"] ;
439 -> 440 ;
441 [label="watch <= 0.5\nentropy = 0.902\nsamples = 88\nvalue = [60, 28]"] ;
440 -> 441 ;
442 [label="up <= 0.5\nentropy = 0.918\nsamples = 84\nvalue = [56, 28]"] ;
441 -> 442 ;
443 [label="government <= 0.5\nentropy = 0.93\nsamples = 81\nvalue = [53, 28]"] ;
442 -> 443 ;
444 [label="election <= 0.5\nentropy = 0.942\nsamples = 78\nvalue = [50, 28]"] ;
443 -> 444 ;
445 [label="obama <= 0.5\nentropy = 0.962\nsamples = 70\nvalue = [43, 27]"] ;
444 -> 445 ;
446 [label="might <= 0.5\nentropy = 0.949\nsamples = 68\nvalue = [43, 25]"] ;
445 -> 446 ;
447 [label="you <= 0.5\nentropy = 0.941\nsamples = 67\nvalue = [43, 24]"] ;
446 -> 447 ;
448 [label="supporters <= 0.5\nentropy = 0.959\nsamples = 63\nvalue = [39, 24]"] ;
447 -> 448 ;
449 [label="speech <= 0.5\nentropy = 0.967\nsamples = 61\nvalue = [37, 24]"] ;
448 -> 449 ;
450 [label="an <= 0.5\nentropy = 0.975\nsamples = 59\nvalue = [35, 24]"] ;
449 -> 450 ;
451 [label="with <= 0.5\nentropy = 0.982\nsamples = 57\nvalue = [33, 24]"] ;
450 -> 451 ;
452 [label="on <= 0.5\nentropy = 0.971\nsamples = 55\nvalue = [33, 22]"] ;
451 -> 452 ;
453 [label="outcome <= 0.5\nentropy = 0.953\nsamples = 51\nvalue = [32, 19]"] ;
452 -> 453 ;
454 [label="metaphor <= 0.5\nentropy = 0.943\nsamples = 50\nvalue = [32, 18]"] ;
453 -> 454 ;
455 [label="conclusions <= 0.5\nentropy = 0.931\nsamples = 49\nvalue = [32, 17]"] ;
454 -> 455 ;
456 [label="days <= 0.5\nentropy = 0.918\nsamples = 48\nvalue = [32, 16]"] ;
455 -> 456 ;
457 [label="back <= 0.5\nentropy = 0.903\nsamples = 47\nvalue = [32, 15]"] ;
456 -> 457 ;
458 [label="capacity <= 0.5\nentropy = 0.887\nsamples = 46\nvalue = [32, 14]"] ;
457 -> 458 ;
459 [label="bill <= 0.5\nentropy = 0.867\nsamples = 45\nvalue = [32, 13]"] ;
458 -> 459 ;
460 [label="transfixed <= 0.5\nentropy = 0.845\nsamples = 44\nvalue = [32, 12]"] ;
459 -> 460 ;
461 [label="breaks <= 0.5\nentropy = 0.82\nsamples = 43\nvalue = [32, 11]"] ;
460 -> 461 ;
462 [label="age <= 0.5\nentropy = 0.792\nsamples = 42\nvalue = [32, 10]"] ;
461 -> 462 ;
463 [label="duterte <= 0.5\nentropy = 0.759\nsamples = 41\nvalue = [32, 9]"] ;
462 -> 463 ;
464 [label="whats <= 0.5\nentropy = 0.722\nsamples = 40\nvalue = [32, 8]"] ;
463 -> 464 ;
465 [label="44 <= 0.5\nentropy = 0.679\nsamples = 39\nvalue = [32, 7]"] ;
464 -> 465 ;
466 [label="former <= 0.5\nentropy = 0.629\nsamples = 38\nvalue = [32, 6]"] ;
465 -> 466 ;
467 [label="comedy <= 0.5\nentropy = 0.571\nsamples = 37\nvalue = [32, 5]"] ;
466 -> 467 ;
468 [label="wants <= 0.5\nentropy = 0.503\nsamples = 36\nvalue = [32, 4]"] ;
467 -> 468 ;
469 [label="calls <= 0.5\nentropy = 0.422\nsamples = 35\nvalue = [32, 3]"] ;
468 -> 469 ;
470 [label="belt <= 0.5\nentropy = 0.323\nsamples = 34\nvalue = [32, 2]"] ;
469 -> 470 ;
471 [label="sanctimony <= 0.5\nentropy = 0.196\nsamples = 33\nvalue = [32, 1]"] ;
470 -> 471 ;
472 [label="entropy = 0.0\nsamples = 32\nvalue = [32, 0]"] ;
471 -> 472 ;
473 [label="entropy = 0.0\nsamples = 1\nvalue = [0, 1]"] ;
471 -> 473 ;
474 [label="entropy = 0.0\nsamples = 1\nvalue = [0, 1]"] ;
470 -> 474 ;
475 [label="entropy = 0.0\nsamples = 1\nvalue = [0, 1]"] ;
469 -> 475 ;
476 [label="entropy = 0.0\nsamples = 1\nvalue = [0, 1]"] ;
468 -> 476 ;
477 [label="entropy = 0.0\nsamples = 1\nvalue = [0, 1]"] ;
467 -> 477 ;
478 [label="entropy = 0.0\nsamples = 1\nvalue = [0, 1]"] ;
466 -> 478 ;
479 [label="entropy = 0.0\nsamples = 1\nvalue = [0, 1]"] ;
465 -> 479 ;
480 [label="entropy = 0.0\nsamples = 1\nvalue = [0, 1]"] ;
464 -> 480 ;
481 [label="entropy = 0.0\nsamples = 1\nvalue = [0, 1]"] ;
463 -> 481 ;
482 [label="entropy = 0.0\nsamples = 1\nvalue = [0, 1]"] ;
462 -> 482 ;
483 [label="entropy = 0.0\nsamples = 1\nvalue = [0, 1]"] ;
461 -> 483 ;
484 [label="entropy = 0.0\nsamples = 1\nvalue = [0, 1]"] ;
460 -> 484 ;
485 [label="entropy = 0.0\nsamples = 1\nvalue = [0, 1]"] ;
459 -> 485 ;
486 [label="entropy = 0.0\nsamples = 1\nvalue = [0, 1]"] ;
458 -> 486 ;
487 [label="entropy = 0.0\nsamples = 1\nvalue = [0, 1]"] ;
457 -> 487 ;
488 [label="entropy = 0.0\nsamples = 1\nvalue = [0, 1]"] ;
456 -> 488 ;
489 [label="entropy = 0.0\nsamples = 1\nvalue = [0, 1]"] ;
455 -> 489 ;
490 [label="entropy = 0.0\nsamples = 1\nvalue = [0, 1]"] ;
454 -> 490 ;
491 [label="entropy = 0.0\nsamples = 1\nvalue = [0, 1]"] ;
453 -> 491 ;
492 [label="shines <= 0.5\nentropy = 0.811\nsamples = 4\nvalue = [1, 3]"] ;
452 -> 492 ;
493 [label="entropy = 0.0\nsamples = 3\nvalue = [0, 3]"] ;
492 -> 493 ;
494 [label="entropy = 0.0\nsamples = 1\nvalue = [1, 0]"] ;
492 -> 494 ;
495 [label="entropy = 0.0\nsamples = 2\nvalue = [0, 2]"] ;
451 -> 495 ;
496 [label="entropy = 0.0\nsamples = 2\nvalue = [2, 0]"] ;
450 -> 496 ;
497 [label="entropy = 0.0\nsamples = 2\nvalue = [2, 0]"] ;
449 -> 497 ;
498 [label="entropy = 0.0\nsamples = 2\nvalue = [2, 0]"] ;
448 -> 498 ;
499 [label="entropy = 0.0\nsamples = 4\nvalue = [4, 0]"] ;
447 -> 499 ;
500 [label="entropy = 0.0\nsamples = 1\nvalue = [0, 1]"] ;
446 -> 500 ;
501 [label="entropy = 0.0\nsamples = 2\nvalue = [0, 2]"] ;
445 -> 501 ;
502 [label="push <= 0.5\nentropy = 0.544\nsamples = 8\nvalue = [7, 1]"] ;
444 -> 502 ;
503 [label="entropy = 0.0\nsamples = 7\nvalue = [7, 0]"] ;
502 -> 503 ;
504 [label="entropy = 0.0\nsamples = 1\nvalue = [0, 1]"] ;
502 -> 504 ;
505 [label="entropy = 0.0\nsamples = 3\nvalue = [3, 0]"] ;
443 -> 505 ;
506 [label="entropy = 0.0\nsamples = 3\nvalue = [3, 0]"] ;
442 -> 506 ;
507 [label="entropy = 0.0\nsamples = 4\nvalue = [4, 0]"] ;
441 -> 507 ;
508 [label="entropy = 0.0\nsamples = 2\nvalue = [0, 2]"] ;
440 -> 508 ;
509 [label="tape <= 0.5\nentropy = 0.391\nsamples = 13\nvalue = [12, 1]"] ;
439 -> 509 ;
510 [label="entropy = 0.0\nsamples = 12\nvalue = [12, 0]"] ;
509 -> 510 ;
511 [label="entropy = 0.0\nsamples = 1\nvalue = [0, 1]"] ;
509 -> 511 ;
512 [label="entropy = 0.0\nsamples = 2\nvalue = [0, 2]"] ;
438 -> 512 ;
513 [label="entropy = 0.0\nsamples = 4\nvalue = [4, 0]"] ;
437 -> 513 ;
514 [label="entropy = 0.0\nsamples = 4\nvalue = [4, 0]"] ;
436 -> 514 ;
515 [label="entropy = 0.0\nsamples = 6\nvalue = [6, 0]"] ;
435 -> 515 ;
516 [label="entropy = 0.0\nsamples = 6\nvalue = [6, 0]"] ;
434 -> 516 ;
517 [label="is <= 0.5\nentropy = 0.985\nsamples = 7\nvalue = [3, 4]"] ;
433 -> 517 ;
518 [label="was <= 0.5\nentropy = 0.722\nsamples = 5\nvalue = [1, 4]"] ;
517 -> 518 ;
519 [label="entropy = 0.0\nsamples = 4\nvalue = [0, 4]"] ;
518 -> 519 ;
520 [label="entropy = 0.0\nsamples = 1\nvalue = [1, 0]"] ;
518 -> 520 ;
521 [label="entropy = 0.0\nsamples = 2\nvalue = [2, 0]"] ;
517 -> 521 ;
522 [label="outside <= 0.5\nentropy = 0.414\nsamples = 12\nvalue = [11, 1]"] ;
432 -> 522 ;
523 [label="entropy = 0.0\nsamples = 11\nvalue = [11, 0]"] ;
522 -> 523 ;
524 [label="entropy = 0.0\nsamples = 1\nvalue = [0, 1]"] ;
522 -> 524 ;
525 [label="entropy = 0.0\nsamples = 6\nvalue = [6, 0]"] ;
431 -> 525 ;
526 [label="entropy = 0.0\nsamples = 2\nvalue = [0, 2]"] ;
430 -> 526 ;
527 [label="resistance <= 0.5\nentropy = 0.353\nsamples = 15\nvalue = [14, 1]"] ;
429 -> 527 ;
528 [label="entropy = 0.0\nsamples = 14\nvalue = [14, 0]"] ;
527 -> 528 ;
529 [label="entropy = 0.0\nsamples = 1\nvalue = [0, 1]"] ;
527 -> 529 ;
530 [label="entropy = 0.0\nsamples = 2\nvalue = [0, 2]"] ;
428 -> 530 ;
531 [label="entropy = 0.0\nsamples = 2\nvalue = [0, 2]"] ;
427 -> 531 ;
532 [label="entropy = 0.0\nsamples = 2\nvalue = [0, 2]"] ;
426 -> 532 ;
533 [label="vs <= 0.5\nentropy = 0.431\nsamples = 34\nvalue = [31, 3]"] ;
425 -> 533 ;
534 [label="language <= 0.5\nentropy = 0.33\nsamples = 33\nvalue = [31, 2]"] ;
533 -> 534 ;
535 [label="inauguration <= 0.5\nentropy = 0.201\nsamples = 32\nvalue = [31, 1]"] ;
534 -> 535 ;
536 [label="entropy = 0.0\nsamples = 31\nvalue = [31, 0]"] ;
535 -> 536 ;
537 [label="entropy = 0.0\nsamples = 1\nvalue = [0, 1]"] ;
535 -> 537 ;
538 [label="entropy = 0.0\nsamples = 1\nvalue = [0, 1]"] ;
534 -> 538 ;
539 [label="entropy = 0.0\nsamples = 1\nvalue = [0, 1]"] ;
533 -> 539 ;
540 [label="entropy = 0.0\nsamples = 2\nvalue = [0, 2]"] ;
424 -> 540 ;
541 [label="entropy = 0.0\nsamples = 2\nvalue = [0, 2]"] ;
423 -> 541 ;
542 [label="entropy = 0.0\nsamples = 2\nvalue = [0, 2]"] ;
422 -> 542 ;
543 [label="entropy = 0.0\nsamples = 2\nvalue = [0, 2]"] ;
421 -> 543 ;
544 [label="entropy = 0.0\nsamples = 2\nvalue = [0, 2]"] ;
420 -> 544 ;
545 [label="entropy = 0.0\nsamples = 9\nvalue = [9, 0]"] ;
419 -> 545 ;
546 [label="entropy = 0.0\nsamples = 13\nvalue = [13, 0]"] ;
418 -> 546 ;
547 [label="entropy = 0.0\nsamples = 3\nvalue = [0, 3]"] ;
417 -> 547 ;
548 [label="pays <= 0.5\nentropy = 0.154\nsamples = 90\nvalue = [88, 2]"] ;
2 -> 548 ;
549 [label="on <= 0.5\nentropy = 0.089\nsamples = 89\nvalue = [88, 1]"] ;
548 -> 549 ;
550 [label="entropy = 0.0\nsamples = 74\nvalue = [74, 0]"] ;
549 -> 550 ;
551 [label="clinton <= 0.5\nentropy = 0.353\nsamples = 15\nvalue = [14, 1]"] ;
549 -> 551 ;
552 [label="entropy = 0.0\nsamples = 14\nvalue = [14, 0]"] ;
551 -> 552 ;
553 [label="entropy = 0.0\nsamples = 1\nvalue = [0, 1]"] ;
551 -> 553 ;
554 [label="entropy = 0.0\nsamples = 1\nvalue = [0, 1]"] ;
548 -> 554 ;
555 [label="walk <= 0.5\nentropy = 0.081\nsamples = 100\nvalue = [1, 99]"] ;
1 -> 555 ;
556 [label="entropy = 0.0\nsamples = 99\nvalue = [0, 99]"] ;
555 -> 556 ;
557 [label="entropy = 0.0\nsamples = 1\nvalue = [1, 0]"] ;
555 -> 557 ;
558 [label="the <= 0.5\nentropy = 0.736\nsamples = 734\nvalue = [152, 582]"] ;
0 -> 558 [labeldistance=2.5, labelangle=-45, headlabel="False"] ;
559 [label="and <= 0.5\nentropy = 0.65\nsamples = 648\nvalue = [108, 540]"] ;
558 -> 559 ;
560 [label="de <= 0.5\nentropy = 0.595\nsamples = 604\nvalue = [87, 517]"] ;
559 -> 560 ;
561 [label="hillary <= 0.5\nentropy = 0.572\nsamples = 598\nvalue = [81, 517]"] ;
560 -> 561 ;
562 [label="voting <= 0.5\nentropy = 0.537\nsamples = 579\nvalue = [71, 508]"] ;
561 -> 562 ;
563 [label="10 <= 0.5\nentropy = 0.524\nsamples = 576\nvalue = [68, 508]"] ;
562 -> 563 ;
564 [label="will <= 0.5\nentropy = 0.506\nsamples = 571\nvalue = [64, 507]"] ;
563 -> 564 ;
565 [label="assassination <= 0.5\nentropy = 0.467\nsamples = 543\nvalue = [54, 489]"] ;
564 -> 565 ;
566 [label="times <= 0.5\nentropy = 0.452\nsamples = 539\nvalue = [51, 488]"] ;
565 -> 566 ;
567 [label="if <= 0.5\nentropy = 0.436\nsamples = 535\nvalue = [48, 487]"] ;
566 -> 567 ;
568 [label="expect <= 0.5\nentropy = 0.419\nsamples = 531\nvalue = [45, 486]"] ;
567 -> 568 ;
569 [label="nostradamus <= 0.5\nentropy = 0.407\nsamples = 529\nvalue = [43, 486]"] ;
568 -> 569 ;
570 [label="video <= 0.5\nentropy = 0.394\nsamples = 527\nvalue = [41, 486]"] ;
569 -> 570 ;
571 [label="details <= 0.5\nentropy = 0.382\nsamples = 525\nvalue = [39, 486]"] ;
570 -> 571 ;
572 [label="black <= 0.5\nentropy = 0.369\nsamples = 523\nvalue = [37, 486]"] ;
571 -> 572 ;
573 [label="are <= 0.5\nentropy = 0.355\nsamples = 521\nvalue = [35, 486]"] ;
572 -> 573 ;
574 [label="is <= 0.5\nentropy = 0.342\nsamples = 518\nvalue = [33, 485]"] ;
573 -> 574 ;
575 [label="obama <= 0.5\nentropy = 0.312\nsamples = 498\nvalue = [28, 470]"] ;
574 -> 575 ;
576 [label="was <= 0.5\nentropy = 0.291\nsamples = 490\nvalue = [25, 465]"] ;
575 -> 576 ;
577 [label="blvd <= 0.5\nentropy = 0.268\nsamples = 480\nvalue = [22, 458]"] ;
576 -> 577 ;
578 [label="pantano <= 0.5\nentropy = 0.26\nsamples = 479\nvalue = [21, 458]"] ;
577 -> 578 ;
579 [label="bring <= 0.5\nentropy = 0.251\nsamples = 478\nvalue = [20, 458]"] ;
578 -> 579 ;
580 [label="rally <= 0.5\nentropy = 0.242\nsamples = 477\nvalue = [19, 458]"] ;
579 -> 580 ;
581 [label="zieht <= 0.5\nentropy = 0.224\nsamples = 472\nvalue = [17, 455]"] ;
580 -> 581 ;
582 [label="urging <= 0.5\nentropy = 0.214\nsamples = 471\nvalue = [16, 455]"] ;
581 -> 582 ;
583 [label="advocates <= 0.5\nentropy = 0.204\nsamples = 470\nvalue = [15, 455]"] ;
582 -> 583 ;
584 [label="bay <= 0.5\nentropy = 0.194\nsamples = 469\nvalue = [14, 455]"] ;
583 -> 584 ;
585 [label="landslide <= 0.5\nentropy = 0.183\nsamples = 468\nvalue = [13, 455]"] ;
584 -> 585 ;
586 [label="spring <= 0.5\nentropy = 0.172\nsamples = 467\nvalue = [12, 455]"] ;
585 -> 586 ;
587 [label="entire <= 0.5\nentropy = 0.161\nsamples = 466\nvalue = [11, 455]"] ;
586 -> 587 ;
588 [label="motor <= 0.5\nentropy = 0.15\nsamples = 465\nvalue = [10, 455]"] ;
587 -> 588 ;
589 [label="chief <= 0.5\nentropy = 0.138\nsamples = 464\nvalue = [9, 455]"] ;
588 -> 589 ;
590 [label="leitet <= 0.5\nentropy = 0.114\nsamples = 457\nvalue = [7, 450]"] ;
589 -> 590 ;
591 [label="jalandoni <= 0.5\nentropy = 0.101\nsamples = 456\nvalue = [6, 450]"] ;
590 -> 591 ;
592 [label="professor <= 0.5\nentropy = 0.087\nsamples = 455\nvalue = [5, 450]"] ;
591 -> 592 ;
593 [label="dates <= 0.5\nentropy = 0.073\nsamples = 454\nvalue = [4, 450]"] ;
592 -> 593 ;
594 [label="peacenik <= 0.5\nentropy = 0.057\nsamples = 453\nvalue = [3, 450]"] ;
593 -> 594 ;
595 [label="kgb <= 0.5\nentropy = 0.041\nsamples = 452\nvalue = [2, 450]"] ;
594 -> 595 ;
596 [label="younger <= 0.5\nentropy = 0.023\nsamples = 451\nvalue = [1, 450]"] ;
595 -> 596 ;
597 [label="entropy = 0.0\nsamples = 450\nvalue = [0, 450]"] ;
596 -> 597 ;
598 [label="entropy = 0.0\nsamples = 1\nvalue = [1, 0]"] ;
596 -> 598 ;
599 [label="entropy = 0.0\nsamples = 1\nvalue = [1, 0]"] ;
595 -> 599 ;
600 [label="entropy = 0.0\nsamples = 1\nvalue = [1, 0]"] ;
594 -> 600 ;
601 [label="entropy = 0.0\nsamples = 1\nvalue = [1, 0]"] ;
593 -> 601 ;
602 [label="entropy = 0.0\nsamples = 1\nvalue = [1, 0]"] ;
592 -> 602 ;
603 [label="entropy = 0.0\nsamples = 1\nvalue = [1, 0]"] ;
591 -> 603 ;
604 [label="entropy = 0.0\nsamples = 1\nvalue = [1, 0]"] ;
590 -> 604 ;
605 [label="voldemort <= 0.5\nentropy = 0.863\nsamples = 7\nvalue = [2, 5]"] ;
589 -> 605 ;
606 [label="right <= 0.5\nentropy = 0.65\nsamples = 6\nvalue = [1, 5]"] ;
605 -> 606 ;
607 [label="entropy = 0.0\nsamples = 5\nvalue = [0, 5]"] ;
606 -> 607 ;
608 [label="entropy = 0.0\nsamples = 1\nvalue = [1, 0]"] ;
606 -> 608 ;
609 [label="entropy = 0.0\nsamples = 1\nvalue = [1, 0]"] ;
605 -> 609 ;
610 [label="entropy = 0.0\nsamples = 1\nvalue = [1, 0]"] ;
588 -> 610 ;
611 [label="entropy = 0.0\nsamples = 1\nvalue = [1, 0]"] ;
587 -> 611 ;
612 [label="entropy = 0.0\nsamples = 1\nvalue = [1, 0]"] ;
586 -> 612 ;
613 [label="entropy = 0.0\nsamples = 1\nvalue = [1, 0]"] ;
585 -> 613 ;
614 [label="entropy = 0.0\nsamples = 1\nvalue = [1, 0]"] ;
584 -> 614 ;
615 [label="entropy = 0.0\nsamples = 1\nvalue = [1, 0]"] ;
583 -> 615 ;
616 [label="entropy = 0.0\nsamples = 1\nvalue = [1, 0]"] ;
582 -> 616 ;
617 [label="entropy = 0.0\nsamples = 1\nvalue = [1, 0]"] ;
581 -> 617 ;
618 [label="at <= 0.5\nentropy = 0.971\nsamples = 5\nvalue = [2, 3]"] ;
580 -> 618 ;
619 [label="with <= 0.5\nentropy = 0.811\nsamples = 4\nvalue = [1, 3]"] ;
618 -> 619 ;
620 [label="entropy = 0.0\nsamples = 3\nvalue = [0, 3]"] ;
619 -> 620 ;
621 [label="entropy = 0.0\nsamples = 1\nvalue = [1, 0]"] ;
619 -> 621 ;
622 [label="entropy = 0.0\nsamples = 1\nvalue = [1, 0]"] ;
618 -> 622 ;
623 [label="entropy = 0.0\nsamples = 1\nvalue = [1, 0]"] ;
579 -> 623 ;
624 [label="entropy = 0.0\nsamples = 1\nvalue = [1, 0]"] ;
578 -> 624 ;
625 [label="entropy = 0.0\nsamples = 1\nvalue = [1, 0]"] ;
577 -> 625 ;
626 [label="tats <= 0.5\nentropy = 0.881\nsamples = 10\nvalue = [3, 7]"] ;
576 -> 626 ;
627 [label="anything <= 0.5\nentropy = 0.764\nsamples = 9\nvalue = [2, 7]"] ;
626 -> 627 ;
628 [label="national <= 0.5\nentropy = 0.544\nsamples = 8\nvalue = [1, 7]"] ;
627 -> 628 ;
629 [label="entropy = 0.0\nsamples = 7\nvalue = [0, 7]"] ;
628 -> 629 ;
630 [label="entropy = 0.0\nsamples = 1\nvalue = [1, 0]"] ;
628 -> 630 ;
631 [label="entropy = 0.0\nsamples = 1\nvalue = [1, 0]"] ;
627 -> 631 ;
632 [label="entropy = 0.0\nsamples = 1\nvalue = [1, 0]"] ;
626 -> 632 ;
633 [label="eyes <= 0.5\nentropy = 0.954\nsamples = 8\nvalue = [3, 5]"] ;
575 -> 633 ;
634 [label="barack <= 0.5\nentropy = 0.863\nsamples = 7\nvalue = [2, 5]"] ;
633 -> 634 ;
635 [label="dont <= 0.5\nentropy = 0.918\nsamples = 3\nvalue = [2, 1]"] ;
634 -> 635 ;
636 [label="entropy = 0.0\nsamples = 2\nvalue = [2, 0]"] ;
635 -> 636 ;
637 [label="entropy = 0.0\nsamples = 1\nvalue = [0, 1]"] ;
635 -> 637 ;
638 [label="entropy = 0.0\nsamples = 4\nvalue = [0, 4]"] ;
634 -> 638 ;
639 [label="entropy = 0.0\nsamples = 1\nvalue = [1, 0]"] ;
633 -> 639 ;
640 [label="preparation <= 0.5\nentropy = 0.811\nsamples = 20\nvalue = [5, 15]"] ;
574 -> 640 ;
641 [label="women <= 0.5\nentropy = 0.742\nsamples = 19\nvalue = [4, 15]"] ;
640 -> 641 ;
642 [label="billionaire <= 0.5\nentropy = 0.65\nsamples = 18\nvalue = [3, 15]"] ;
641 -> 642 ;
643 [label="autistic <= 0.5\nentropy = 0.523\nsamples = 17\nvalue = [2, 15]"] ;
642 -> 643 ;
644 [label="win <= 0.5\nentropy = 0.337\nsamples = 16\nvalue = [1, 15]"] ;
643 -> 644 ;
645 [label="entropy = 0.0\nsamples = 15\nvalue = [0, 15]"] ;
644 -> 645 ;
646 [label="entropy = 0.0\nsamples = 1\nvalue = [1, 0]"] ;
644 -> 646 ;
647 [label="entropy = 0.0\nsamples = 1\nvalue = [1, 0]"] ;
643 -> 647 ;
648 [label="entropy = 0.0\nsamples = 1\nvalue = [1, 0]"] ;
642 -> 648 ;
649 [label="entropy = 0.0\nsamples = 1\nvalue = [1, 0]"] ;
641 -> 649 ;
650 [label="entropy = 0.0\nsamples = 1\nvalue = [1, 0]"] ;
640 -> 650 ;
651 [label="lost <= 0.5\nentropy = 0.918\nsamples = 3\nvalue = [2, 1]"] ;
573 -> 651 ;
652 [label="entropy = 0.0\nsamples = 2\nvalue = [2, 0]"] ;
651 -> 652 ;
653 [label="entropy = 0.0\nsamples = 1\nvalue = [0, 1]"] ;
651 -> 653 ;
654 [label="entropy = 0.0\nsamples = 2\nvalue = [2, 0]"] ;
572 -> 654 ;
655 [label="entropy = 0.0\nsamples = 2\nvalue = [2, 0]"] ;
571 -> 655 ;
656 [label="entropy = 0.0\nsamples = 2\nvalue = [2, 0]"] ;
570 -> 656 ;
657 [label="entropy = 0.0\nsamples = 2\nvalue = [2, 0]"] ;
569 -> 657 ;
658 [label="entropy = 0.0\nsamples = 2\nvalue = [2, 0]"] ;
568 -> 658 ;
659 [label="to <= 0.5\nentropy = 0.811\nsamples = 4\nvalue = [3, 1]"] ;
567 -> 659 ;
660 [label="entropy = 0.0\nsamples = 1\nvalue = [0, 1]"] ;
659 -> 660 ;
661 [label="entropy = 0.0\nsamples = 3\nvalue = [3, 0]"] ;
659 -> 661 ;
662 [label="in <= 0.5\nentropy = 0.811\nsamples = 4\nvalue = [3, 1]"] ;
566 -> 662 ;
663 [label="entropy = 0.0\nsamples = 1\nvalue = [0, 1]"] ;
662 -> 663 ;
664 [label="entropy = 0.0\nsamples = 3\nvalue = [3, 0]"] ;
662 -> 664 ;
665 [label="jfk <= 0.5\nentropy = 0.811\nsamples = 4\nvalue = [3, 1]"] ;
565 -> 665 ;
666 [label="entropy = 0.0\nsamples = 3\nvalue = [3, 0]"] ;
665 -> 666 ;
667 [label="entropy = 0.0\nsamples = 1\nvalue = [0, 1]"] ;
665 -> 667 ;
668 [label="in <= 0.5\nentropy = 0.94\nsamples = 28\nvalue = [10, 18]"] ;
564 -> 668 ;
669 [label="it <= 0.5\nentropy = 0.755\nsamples = 23\nvalue = [5, 18]"] ;
668 -> 669 ;
670 [label="taking <= 0.5\nentropy = 0.592\nsamples = 21\nvalue = [3, 18]"] ;
669 -> 670 ;
671 [label="be <= 0.5\nentropy = 0.469\nsamples = 20\nvalue = [2, 18]"] ;
670 -> 671 ;
672 [label="entropy = 0.0\nsamples = 14\nvalue = [0, 14]"] ;
671 -> 672 ;
673 [label="president <= 1.0\nentropy = 0.918\nsamples = 6\nvalue = [2, 4]"] ;
671 -> 673 ;
674 [label="economic <= 0.5\nentropy = 0.722\nsamples = 5\nvalue = [1, 4]"] ;
673 -> 674 ;
675 [label="entropy = 0.0\nsamples = 4\nvalue = [0, 4]"] ;
674 -> 675 ;
676 [label="entropy = 0.0\nsamples = 1\nvalue = [1, 0]"] ;
674 -> 676 ;
677 [label="entropy = 0.0\nsamples = 1\nvalue = [1, 0]"] ;
673 -> 677 ;
678 [label="entropy = 0.0\nsamples = 1\nvalue = [1, 0]"] ;
670 -> 678 ;
679 [label="entropy = 0.0\nsamples = 2\nvalue = [2, 0]"] ;
669 -> 679 ;
680 [label="entropy = 0.0\nsamples = 5\nvalue = [5, 0]"] ;
668 -> 680 ;
681 [label="guys <= 0.5\nentropy = 0.722\nsamples = 5\nvalue = [4, 1]"] ;
563 -> 681 ;
682 [label="entropy = 0.0\nsamples = 4\nvalue = [4, 0]"] ;
681 -> 682 ;
683 [label="entropy = 0.0\nsamples = 1\nvalue = [0, 1]"] ;
681 -> 683 ;
684 [label="entropy = 0.0\nsamples = 3\nvalue = [3, 0]"] ;
562 -> 684 ;
685 [label="clinton <= 0.5\nentropy = 0.998\nsamples = 19\nvalue = [10, 9]"] ;
561 -> 685 ;
686 [label="entropy = 0.0\nsamples = 5\nvalue = [5, 0]"] ;
685 -> 686 ;
687 [label="their <= 0.5\nentropy = 0.94\nsamples = 14\nvalue = [5, 9]"] ;
685 -> 687 ;
688 [label="whether <= 0.5\nentropy = 0.811\nsamples = 12\nvalue = [3, 9]"] ;
687 -> 688 ;
689 [label="kimmel <= 0.5\nentropy = 0.684\nsamples = 11\nvalue = [2, 9]"] ;
688 -> 689 ;
690 [label="more <= 0.5\nentropy = 0.469\nsamples = 10\nvalue = [1, 9]"] ;
689 -> 690 ;
691 [label="entropy = 0.0\nsamples = 9\nvalue = [0, 9]"] ;
690 -> 691 ;
692 [label="entropy = 0.0\nsamples = 1\nvalue = [1, 0]"] ;
690 -> 692 ;
693 [label="entropy = 0.0\nsamples = 1\nvalue = [1, 0]"] ;
689 -> 693 ;
694 [label="entropy = 0.0\nsamples = 1\nvalue = [1, 0]"] ;
688 -> 694 ;
695 [label="entropy = 0.0\nsamples = 2\nvalue = [2, 0]"] ;
687 -> 695 ;
696 [label="entropy = 0.0\nsamples = 6\nvalue = [6, 0]"] ;
560 -> 696 ;
697 [label="is <= 0.5\nentropy = 0.999\nsamples = 44\nvalue = [21, 23]"] ;
559 -> 697 ;
698 [label="will <= 0.5\nentropy = 0.984\nsamples = 40\nvalue = [17, 23]"] ;
697 -> 698 ;
699 [label="trumps <= 0.5\nentropy = 0.957\nsamples = 37\nvalue = [14, 23]"] ;
698 -> 699 ;
700 [label="both <= 0.5\nentropy = 0.983\nsamples = 33\nvalue = [14, 19]"] ;
699 -> 700 ;
701 [label="for <= 0.5\nentropy = 0.963\nsamples = 31\nvalue = [12, 19]"] ;
700 -> 701 ;
702 [label="walk <= 0.5\nentropy = 0.929\nsamples = 29\nvalue = [10, 19]"] ;
701 -> 702 ;
703 [label="between <= 0.5\nentropy = 0.877\nsamples = 27\nvalue = [8, 19]"] ;
702 -> 703 ;
704 [label="on <= 0.5\nentropy = 0.84\nsamples = 26\nvalue = [7, 19]"] ;
703 -> 704 ;
705 [label="must <= 0.5\nentropy = 0.702\nsamples = 21\nvalue = [4, 17]"] ;
704 -> 705 ;
706 [label="german <= 0.5\nentropy = 0.61\nsamples = 20\nvalue = [3, 17]"] ;
705 -> 706 ;
707 [label="create <= 0.5\nentropy = 0.485\nsamples = 19\nvalue = [2, 17]"] ;
706 -> 707 ;
708 [label="elect <= 0.5\nentropy = 0.31\nsamples = 18\nvalue = [1, 17]"] ;
707 -> 708 ;
709 [label="entropy = 0.0\nsamples = 17\nvalue = [0, 17]"] ;
708 -> 709 ;
710 [label="entropy = 0.0\nsamples = 1\nvalue = [1, 0]"] ;
708 -> 710 ;
711 [label="entropy = 0.0\nsamples = 1\nvalue = [1, 0]"] ;
707 -> 711 ;
712 [label="entropy = 0.0\nsamples = 1\nvalue = [1, 0]"] ;
706 -> 712 ;
713 [label="entropy = 0.0\nsamples = 1\nvalue = [1, 0]"] ;
705 -> 713 ;
714 [label="hillary <= 0.5\nentropy = 0.971\nsamples = 5\nvalue = [3, 2]"] ;
704 -> 714 ;
715 [label="seeks <= 0.5\nentropy = 0.918\nsamples = 3\nvalue = [1, 2]"] ;
714 -> 715 ;
716 [label="entropy = 0.0\nsamples = 2\nvalue = [0, 2]"] ;
715 -> 716 ;
717 [label="entropy = 0.0\nsamples = 1\nvalue = [1, 0]"] ;
715 -> 717 ;
718 [label="entropy = 0.0\nsamples = 2\nvalue = [2, 0]"] ;
714 -> 718 ;
719 [label="entropy = 0.0\nsamples = 1\nvalue = [1, 0]"] ;
703 -> 719 ;
720 [label="entropy = 0.0\nsamples = 2\nvalue = [2, 0]"] ;
702 -> 720 ;
721 [label="entropy = 0.0\nsamples = 2\nvalue = [2, 0]"] ;
701 -> 721 ;
722 [label="entropy = 0.0\nsamples = 2\nvalue = [2, 0]"] ;
700 -> 722 ;
723 [label="entropy = 0.0\nsamples = 4\nvalue = [0, 4]"] ;
699 -> 723 ;
724 [label="entropy = 0.0\nsamples = 3\nvalue = [3, 0]"] ;
698 -> 724 ;
725 [label="entropy = 0.0\nsamples = 4\nvalue = [4, 0]"] ;
697 -> 725 ;
726 [label="as <= 0.5\nentropy = 1.0\nsamples = 86\nvalue = [44, 42]"] ;
558 -> 726 ;
727 [label="trumps <= 0.5\nentropy = 0.998\nsamples = 80\nvalue = [38, 42]"] ;
726 -> 727 ;
728 [label="can <= 0.5\nentropy = 1.0\nsamples = 75\nvalue = [38, 37]"] ;
727 -> 728 ;
729 [label="by <= 0.5\nentropy = 0.996\nsamples = 71\nvalue = [38, 33]"] ;
728 -> 729 ;
730 [label="that <= 0.5\nentropy = 1.0\nsamples = 67\nvalue = [34, 33]"] ;
729 -> 730 ;
731 [label="won <= 0.5\nentropy = 0.998\nsamples = 63\nvalue = [30, 33]"] ;
730 -> 731 ;
732 [label="for <= 0.5\nentropy = 0.993\nsamples = 60\nvalue = [27, 33]"] ;
731 -> 732 ;
733 [label="america <= 0.5\nentropy = 0.966\nsamples = 51\nvalue = [20, 31]"] ;
732 -> 733 ;
734 [label="45th <= 0.5\nentropy = 0.949\nsamples = 49\nvalue = [18, 31]"] ;
733 -> 734 ;
735 [label="if <= 0.5\nentropy = 0.925\nsamples = 47\nvalue = [16, 31]"] ;
734 -> 735 ;
736 [label="new <= 0.5\nentropy = 0.894\nsamples = 45\nvalue = [14, 31]"] ;
735 -> 736 ;
737 [label="jerusalem <= 0.5\nentropy = 0.839\nsamples = 41\nvalue = [11, 30]"] ;
736 -> 737 ;
738 [label="hero <= 0.5\nentropy = 0.811\nsamples = 40\nvalue = [10, 30]"] ;
737 -> 738 ;
739 [label="weeks <= 0.5\nentropy = 0.779\nsamples = 39\nvalue = [9, 30]"] ;
738 -> 739 ;
740 [label="are <= 0.5\nentropy = 0.742\nsamples = 38\nvalue = [8, 30]"] ;
739 -> 740 ;
741 [label="rap <= 0.5\nentropy = 0.661\nsamples = 35\nvalue = [6, 29]"] ;
740 -> 741 ;
742 [label="down <= 0.5\nentropy = 0.602\nsamples = 34\nvalue = [5, 29]"] ;
741 -> 742 ;
743 [label="harry <= 0.5\nentropy = 0.533\nsamples = 33\nvalue = [4, 29]"] ;
742 -> 743 ;
744 [label="mitt <= 0.5\nentropy = 0.449\nsamples = 32\nvalue = [3, 29]"] ;
743 -> 744 ;
745 [label="1990 <= 0.5\nentropy = 0.345\nsamples = 31\nvalue = [2, 29]"] ;
744 -> 745 ;
746 [label="dating <= 0.5\nentropy = 0.211\nsamples = 30\nvalue = [1, 29]"] ;
745 -> 746 ;
747 [label="entropy = 0.0\nsamples = 29\nvalue = [0, 29]"] ;
746 -> 747 ;
748 [label="entropy = 0.0\nsamples = 1\nvalue = [1, 0]"] ;
746 -> 748 ;
749 [label="entropy = 0.0\nsamples = 1\nvalue = [1, 0]"] ;
745 -> 749 ;
750 [label="entropy = 0.0\nsamples = 1\nvalue = [1, 0]"] ;
744 -> 750 ;
751 [label="entropy = 0.0\nsamples = 1\nvalue = [1, 0]"] ;
743 -> 751 ;
752 [label="entropy = 0.0\nsamples = 1\nvalue = [1, 0]"] ;
742 -> 752 ;
753 [label="entropy = 0.0\nsamples = 1\nvalue = [1, 0]"] ;
741 -> 753 ;
754 [label="pope <= 0.5\nentropy = 0.918\nsamples = 3\nvalue = [2, 1]"] ;
740 -> 754 ;
755 [label="entropy = 0.0\nsamples = 2\nvalue = [2, 0]"] ;
754 -> 755 ;
756 [label="entropy = 0.0\nsamples = 1\nvalue = [0, 1]"] ;
754 -> 756 ;
757 [label="entropy = 0.0\nsamples = 1\nvalue = [1, 0]"] ;
739 -> 757 ;
758 [label="entropy = 0.0\nsamples = 1\nvalue = [1, 0]"] ;
738 -> 758 ;
759 [label="entropy = 0.0\nsamples = 1\nvalue = [1, 0]"] ;
737 -> 759 ;
760 [label="times <= 0.5\nentropy = 0.811\nsamples = 4\nvalue = [3, 1]"] ;
736 -> 760 ;
761 [label="entropy = 0.0\nsamples = 3\nvalue = [3, 0]"] ;
760 -> 761 ;
762 [label="entropy = 0.0\nsamples = 1\nvalue = [0, 1]"] ;
760 -> 762 ;
763 [label="entropy = 0.0\nsamples = 2\nvalue = [2, 0]"] ;
735 -> 763 ;
764 [label="entropy = 0.0\nsamples = 2\nvalue = [2, 0]"] ;
734 -> 764 ;
765 [label="entropy = 0.0\nsamples = 2\nvalue = [2, 0]"] ;
733 -> 765 ;
766 [label="republican <= 0.5\nentropy = 0.764\nsamples = 9\nvalue = [7, 2]"] ;
732 -> 766 ;
767 [label="case <= 0.5\nentropy = 0.544\nsamples = 8\nvalue = [7, 1]"] ;
766 -> 767 ;
768 [label="entropy = 0.0\nsamples = 7\nvalue = [7, 0]"] ;
767 -> 768 ;
769 [label="entropy = 0.0\nsamples = 1\nvalue = [0, 1]"] ;
767 -> 769 ;
770 [label="entropy = 0.0\nsamples = 1\nvalue = [0, 1]"] ;
766 -> 770 ;
771 [label="entropy = 0.0\nsamples = 3\nvalue = [3, 0]"] ;
731 -> 771 ;
772 [label="entropy = 0.0\nsamples = 4\nvalue = [4, 0]"] ;
730 -> 772 ;
773 [label="entropy = 0.0\nsamples = 4\nvalue = [4, 0]"] ;
729 -> 773 ;
774 [label="entropy = 0.0\nsamples = 4\nvalue = [0, 4]"] ;
728 -> 774 ;
775 [label="entropy = 0.0\nsamples = 5\nvalue = [0, 5]"] ;
727 -> 775 ;
776 [label="entropy = 0.0\nsamples = 6\nvalue = [6, 0]"] ;
726 -> 776 ;
}